{
  "Aave": {
    "weights": [
      -0.015584412343312237,
      0.00465117989086161,
      -0.07195221225419102,
      0.2184022586412896,
      0.07316999275589252,
      -0.1850273571307872,
      5.667444500957236
    ],
    "bias": 2.8350073336637998,
    "scaler_center": [
      0.012978577859769969,
      0.019418373369611164,
      0.024358333654679265,
      0.06291230980883737,
      -0.015301364247627736,
      3.2204678864285654,
      1.0
    ],
    "scaler_scale": [
      0.10465068984156367,
      0.16225525894854287,
      0.15213197914085547,
      0.03508968592068568,
      0.41870467191103133,
      13.971336078571426,
      1.0
    ],
    "metrics": {
      "accuracy": 1.0,
      "precision": 1.0,
      "recall": 1.0,
      "f1_score": 1.0,
      "confusion_matrix": [
        [
          26,
          0
        ],
        [
          0,
          27
        ]
      ]
    },
    "features": [
      "return_1",
      "return_3",
      "ma_distance_7",
      "volatility_7",
      "volume_change",
      "ma_crossover",
      "target"
    ]
  },
  "BinanceCoin": {
    "weights": [
      -0.0004127709205373377,
      -0.053729034603810746,
      0.041770430028928225,
      0.057427498666283106,
      -0.037664909480911266,
      -0.034010412965106866,
      8.400729962041494
    ],
    "bias": 4.2250561612869015,
    "scaler_center": [
      0.0007386270178186827,
      0.003636453022871633,
      0.0038648835093342544,
      0.04345073814162979,
      -0.020084860310569552,
      0.06743114315714394,
      1.0
    ],
    "scaler_scale": [
      0.05644969546342726,
      0.10467314525046428,
      0.08258807382748742,
      0.035801637778827125,
      0.28750334413895945,
      0.7661440312117866,
      1.0
    ],
    "metrics": {
      "accuracy": 1.0,
      "precision": 1.0,
      "recall": 1.0,
      "f1_score": 1.0,
      "confusion_matrix": [
        [
          129,
          0
        ],
        [
          0,
          157
        ]
      ]
    },
    "features": [
      "return_1",
      "return_3",
      "ma_distance_7",
      "volatility_7",
      "volume_change",
      "ma_crossover",
      "target"
    ]
  },
  "Bitcoin": {
    "weights": [
      -0.024066645567217184,
      0.004066053289956775,
      -0.016902807559547817,
      -0.02478521582994133,
      0.005027886469532426,
      0.11195014123277146,
      9.475878850192482
    ],
    "bias": 4.817501767957486,
    "scaler_center": [
      0.0013973178470869652,
      0.003932872988292813,
      0.0017641237686464848,
      0.026739333328934,
      -0.01388199824447578,
      1.3909955705914854,
      1.0
    ],
    "scaler_scale": [
      0.029156439989248606,
      0.06018496463331907,
      0.048055508252352955,
      0.026383107950292715,
      0.3584772841207315,
      20.0,
      1.0
    ],
    "metrics": {
      "accuracy": 1.0,
      "precision": 1.0,
      "recall": 1.0,
      "f1_score": 1.0,
      "confusion_matrix": [
        [
          252,
          0
        ],
        [
          0,
          298
        ]
      ]
    },
    "features": [
      "return_1",
      "return_3",
      "ma_distance_7",
      "volatility_7",
      "volume_change",
      "ma_crossover",
      "target"
    ]
  },
  "Cardano": {
    "weights": [
      -0.12182280717749844,
      0.048492176249614174,
      0.03470787156392625,
      0.01591152317060601,
      0.008690354655018022,
      -0.008662525865851919,
      8.3169482759231
    ],
    "bias": -0.011238527593114021,
    "scaler_center": [
      -8.718700493415277e-05,
      -0.002232223848281145,
      -0.004765045905144373,
      0.05015756812369442,
      -0.02843535430971028,
      -0.00010098418629285802,
      0.5
    ],
    "scaler_scale": [
      0.06172891814676229,
      0.10632180419024881,
      0.08701727172006696,
      0.034431402134627184,
      0.4507994552257655,
      0.0053371953593818605,
      1.0
    ],
    "metrics": {
      "accuracy": 1.0,
      "precision": 1.0,
      "recall": 1.0,
      "f1_score": 1.0,
      "confusion_matrix": [
        [
          125,
          0
        ],
        [
          0,
          148
        ]
      ]
    },
    "features": [
      "return_1",
      "return_3",
      "ma_distance_7",
      "volatility_7",
      "volume_change",
      "ma_crossover",
      "target"
    ]
  },
  "ChainLink": {
    "weights": [
      -0.06032212077526741,
      -0.007135242606126253,
      0.03980021141434949,
      -0.024992216192660774,
      0.013296410133866968,
      -0.013463001085195674,
      8.334821216216659
    ],
    "bias": -4.174677073006832,
    "scaler_center": [
      -0.0010606568936155636,
      0.0022477402999809826,
      0.0015284194739603883,
      0.0581032243533851,
      -0.02365080150017529,
      0.005685286862509603,
      0.0
    ],
    "scaler_scale": [
      0.07470684741623257,
      0.14254206395402536,
      0.11397155530136778,
      0.04585500258587864,
      0.41438785223927443,
      0.07876778678499996,
      1.0
    ],
    "metrics": {
      "accuracy": 1.0,
      "precision": 1.0,
      "recall": 1.0,
      "f1_score": 1.0,
      "confusion_matrix": [
        [
          128,
          0
        ],
        [
          0,
          147
        ]
      ]
    },
    "features": [
      "return_1",
      "return_3",
      "ma_distance_7",
      "volatility_7",
      "volume_change",
      "ma_crossover",
      "target"
    ]
  },
  "Cosmos": {
    "weights": [
      -0.08248161689788325,
      -0.07187108821240554,
      0.06067465559767294,
      0.028646495539019597,
      -0.02485722926163074,
      -0.10047833569469478,
      7.516702632801614
    ],
    "bias": 3.775289433519849,
    "scaler_center": [
      0.0005665400682948185,
      0.0032915422278003703,
      0.0014703395730667468,
      0.047894412438137995,
      0.0032971584638026297,
      0.00976652242642917,
      1.0
    ],
    "scaler_scale": [
      0.06567544440278339,
      0.11279488447719066,
      0.08502463733238659,
      0.03033489856039162,
      0.28166533989023523,
      0.30929287945000006,
      1.0
    ],
    "metrics": {
      "accuracy": 1.0,
      "precision": 1.0,
      "recall": 1.0,
      "f1_score": 1.0,
      "confusion_matrix": [
        [
          84,
          0
        ],
        [
          0,
          83
        ]
      ]
    },
    "features": [
      "return_1",
      "return_3",
      "ma_distance_7",
      "volatility_7",
      "volume_change",
      "ma_crossover",
      "target"
    ]
  },
  "CryptocomCoin": {
    "weights": [
      -0.019634133206423057,
      0.05200042953850878,
      0.040608023297692766,
      -0.031637940468771254,
      -0.03997552202550378,
      0.010550981651606632,
      7.678622443161154
    ],
    "bias": 3.8697128032185955,
    "scaler_center": [
      0.0001743855105031944,
      0.001172938855864336,
      -0.0008449979725637876,
      0.03377085784426018,
      -0.01059992522007347,
      -5.3073116671423226e-05,
      1.0
    ],
    "scaler_scale": [
      0.04083281241794057,
      0.08779219877065281,
      0.071677967766236,
      0.02645320100792214,
      0.29989840985307736,
      0.003711438732685715,
      1.0
    ],
    "metrics": {
      "accuracy": 1.0,
      "precision": 1.0,
      "recall": 1.0,
      "f1_score": 1.0,
      "confusion_matrix": [
        [
          84,
          0
        ],
        [
          0,
          101
        ]
      ]
    },
    "features": [
      "return_1",
      "return_3",
      "ma_distance_7",
      "volatility_7",
      "volume_change",
      "ma_crossover",
      "target"
    ]
  },
  "Dogecoin": {
    "weights": [
      -0.03570713917478925,
      0.004269672266631294,
      0.017278500000147516,
      0.022154722532888332,
      0.016440126904536518,
      0.0021938240141758806,
      9.479233458975179
    ],
    "bias": -4.824967130129179,
    "scaler_center": [
      -0.002459955178839013,
      -0.007511733048382263,
      -0.0074070965314675715,
      0.03809946251249365,
      -0.017846050835448435,
      -1.7204287620000563e-06,
      0.0
    ],
    "scaler_scale": [
      0.04250215654850764,
      0.07746085109594258,
      0.05811205364198261,
      0.0424296921357722,
      0.49774656258518557,
      3.634463127658597e-05,
      1.0
    ],
    "metrics": {
      "accuracy": 0.9836363636363636,
      "precision": 0.9683098591549296,
      "recall": 1.0,
      "f1_score": 0.9838998211091234,
      "confusion_matrix": [
        [
          266,
          9
        ],
        [
          0,
          275
        ]
      ]
    },
    "features": [
      "return_1",
      "return_3",
      "ma_distance_7",
      "volatility_7",
      "volume_change",
      "ma_crossover",
      "target"
    ]
  },
  "EOS": {
    "weights": [
      -0.09262343793034024,
      0.04017215736837105,
      -0.03637005557059055,
      0.029746694691805603,
      0.02653808207391968,
      0.016570030590767917,
      8.42340393085717
    ],
    "bias": -4.231521828493808,
    "scaler_center": [
      -0.0004750362831580368,
      -0.0021598733449192387,
      -0.0016627149988582292,
      0.05056520525504312,
      -0.018713302869793058,
      -0.008116388330714042,
      0.0
    ],
    "scaler_scale": [
      0.05273002067736393,
      0.10106705047580139,
      0.08104536613961577,
      0.04388433328707453,
      0.31252617033659813,
      0.27922038124232523,
      1.0
    ],
    "metrics": {
      "accuracy": 1.0,
      "precision": 1.0,
      "recall": 1.0,
      "f1_score": 1.0,
      "confusion_matrix": [
        [
          145,
          0
        ],
        [
          0,
          146
        ]
      ]
    },
    "features": [
      "return_1",
      "return_3",
      "ma_distance_7",
      "volatility_7",
      "volume_change",
      "ma_crossover",
      "target"
    ]
  },
  "Ethereum": {
    "weights": [
      -0.09673981441779884,
      -0.00702153395143033,
      0.04440124961771962,
      0.020433313771887337,
      0.02894657413996347,
      0.04021124776753279,
      9.06789137291384
    ],
    "bias": -4.5575807718631065,
    "scaler_center": [
      -0.0004990419831896187,
      0.0032171676398931037,
      0.001725925328313812,
      0.04483039632602641,
      -0.011065382043244698,
      0.03715705871582031,
      0.0
    ],
    "scaler_scale": [
      0.05128495274819933,
      0.09938364264615607,
      0.0796761015281123,
      0.037478879597964976,
      0.3567038857673941,
      6.17105098264858,
      1.0
    ],
    "metrics": {
      "accuracy": 1.0,
      "precision": 1.0,
      "recall": 1.0,
      "f1_score": 1.0,
      "confusion_matrix": [
        [
          185,
          0
        ],
        [
          0,
          245
        ]
      ]
    },
    "features": [
      "return_1",
      "return_3",
      "ma_distance_7",
      "volatility_7",
      "volume_change",
      "ma_crossover",
      "target"
    ]
  },
  "Iota": {
    "weights": [
      -0.11892400207485403,
      0.05443236949942704,
      -0.04679724649690495,
      0.06561616418051805,
      0.017852011024466978,
      -0.00031743370815606373,
      8.437333823902934
    ],
    "bias": -4.272062142976626,
    "scaler_center": [
      -0.0015169601707347158,
      -0.005299465333334752,
      -0.007347394187721456,
      0.04905043627763947,
      -0.029458170820275742,
      -0.00220445194060713,
      0.0
    ],
    "scaler_scale": [
      0.06343512555801634,
      0.10654354569001107,
      0.08235814016065222,
      0.03887121146496364,
      0.4543066007859392,
      0.028510224301732112,
      1.0
    ],
    "metrics": {
      "accuracy": 1.0,
      "precision": 1.0,
      "recall": 1.0,
      "f1_score": 1.0,
      "confusion_matrix": [
        [
          136,
          0
        ],
        [
          0,
          159
        ]
      ]
    },
    "features": [
      "return_1",
      "return_3",
      "ma_distance_7",
      "volatility_7",
      "volume_change",
      "ma_crossover",
      "target"
    ]
  },
  "Litecoin": {
    "weights": [
      -0.03893506872068327,
      -0.04780739473799907,
      0.028425906105340983,
      0.0358229308105545,
      -0.009966918956334357,
      -0.0006065104941403262,
      9.47754454411733
    ],
    "bias": -4.776169912936719,
    "scaler_center": [
      -0.0011510835105346118,
      -0.0026453329017385174,
      -0.002692488295136726,
      0.03718715368049411,
      -0.02600907327177515,
      -0.00848002093178879,
      0.0
    ],
    "scaler_scale": [
      0.038242338664347564,
      0.071089157166845,
      0.05477944709512511,
      0.03776834791323107,
      0.411466589383306,
      0.7590174869605399,
      1.0
    ],
    "metrics": {
      "accuracy": 1.0,
      "precision": 1.0,
      "recall": 1.0,
      "f1_score": 1.0,
      "confusion_matrix": [
        [
          257,
          0
        ],
        [
          0,
          293
        ]
      ]
    },
    "features": [
      "return_1",
      "return_3",
      "ma_distance_7",
      "volatility_7",
      "volume_change",
      "ma_crossover",
      "target"
    ]
  },
  "Monero": {
    "weights": [
      -0.05680093414476609,
      -0.054428076328836734,
      0.024647056154886993,
      0.0023314792934141567,
      0.040426581539830156,
      0.005909851907485327,
      9.38574729378767
    ],
    "bias": -4.711910078832264,
    "scaler_center": [
      -0.001260243156873453,
      -0.0026563582427514554,
      -0.003135221078515272,
      0.051066697327133634,
      -0.01672828517960656,
      -0.0027046416487013225,
      0.0
    ],
    "scaler_scale": [
      0.062373985987911384,
      0.11472122708252375,
      0.08664225053402161,
      0.041972841158626054,
      0.505789932445693,
      0.8379170311771522,
      1.0
    ],
    "metrics": {
      "accuracy": 1.0,
      "precision": 1.0,
      "recall": 1.0,
      "f1_score": 1.0,
      "confusion_matrix": [
        [
          226,
          0
        ],
        [
          0,
          292
        ]
      ]
    },
    "features": [
      "return_1",
      "return_3",
      "ma_distance_7",
      "volatility_7",
      "volume_change",
      "ma_crossover",
      "target"
    ]
  },
  "NEM": {
    "weights": [
      -0.08359511958991335,
      -0.045754850898971994,
      0.038852063711733345,
      0.00936345800394644,
      0.02313305195510495,
      5.617666293259998e-05,
      9.167043312072298
    ],
    "bias": -4.593841798730098,
    "scaler_center": [
      -0.0005200796106398231,
      -0.0002163366826090085,
      -0.0034618410106402745,
      0.053069209800920544,
      -0.025893822041925252,
      -2.297789251304342e-06,
      0.0
    ],
    "scaler_scale": [
      0.0632894953891574,
      0.11366994478246037,
      0.08684517017871143,
      0.04686007233236536,
      0.6824530107461245,
      0.0020073026434303714,
      1.0
    ],
    "metrics": {
      "accuracy": 1.0,
      "precision": 1.0,
      "recall": 1.0,
      "f1_score": 1.0,
      "confusion_matrix": [
        [
          212,
          0
        ],
        [
          0,
          243
        ]
      ]
    },
    "features": [
      "return_1",
      "return_3",
      "ma_distance_7",
      "volatility_7",
      "volume_change",
      "ma_crossover",
      "target"
    ]
  },
  "Polkadot": {
    "weights": [
      -0.03823004883587814,
      0.036758150072618984,
      -0.1271592802866416,
      0.07203443009866126,
      0.09641560426974183,
      -0.017361024820873823,
      5.934190283162267
    ],
    "bias": -3.003380987166275,
    "scaler_center": [
      -0.0013676873851310445,
      0.013485233263743401,
      0.014541490555251335,
      0.05492946616989822,
      -0.006468624891480923,
      0.09048162714285723,
      0.0
    ],
    "scaler_scale": [
      0.06296715769315409,
      0.12190908284271351,
      0.09766273310824605,
      0.02950659580946729,
      0.42272684687999407,
      0.9142299742857105,
      1.0
    ],
    "metrics": {
      "accuracy": 1.0,
      "precision": 1.0,
      "recall": 1.0,
      "f1_score": 1.0,
      "confusion_matrix": [
        [
          32,
          0
        ],
        [
          0,
          30
        ]
      ]
    },
    "features": [
      "return_1",
      "return_3",
      "ma_distance_7",
      "volatility_7",
      "volume_change",
      "ma_crossover",
      "target"
    ]
  },
  "Solana": {
    "weights": [
      -0.04953788727989541,
      0.06086934623517162,
      -0.04763638211371884,
      -0.04838072303051009,
      0.041167594135243575,
      0.021159533854761704,
      6.501000321537328
    ],
    "bias": 3.306216809314369,
    "scaler_center": [
      0.005513261910335965,
      0.02309345334267765,
      0.016286339564444124,
      0.0726979359874927,
      -0.016842453659617007,
      0.02533828317985709,
      1.0
    ],
    "scaler_scale": [
      0.10401138623254624,
      0.185523836317614,
      0.1438805064147943,
      0.0425630256592371,
      0.4729595704376655,
      0.29483945013946417,
      1.0
    ],
    "metrics": {
      "accuracy": 1.0,
      "precision": 1.0,
      "recall": 1.0,
      "f1_score": 1.0,
      "confusion_matrix": [
        [
          44,
          0
        ],
        [
          0,
          44
        ]
      ]
    },
    "features": [
      "return_1",
      "return_3",
      "ma_distance_7",
      "volatility_7",
      "volume_change",
      "ma_crossover",
      "target"
    ]
  },
  "Stellar": {
    "weights": [
      -0.03801406562696058,
      -0.021812079138538623,
      0.013073511524622354,
      0.0340166602605421,
      0.02238948316421624,
      -0.0025618344468824913,
      9.33596431109657
    ],
    "bias": -4.760779471078414,
    "scaler_center": [
      -0.003211499162840581,
      -0.0072532667912657,
      -0.008370665214574632,
      0.045279529499802004,
      -0.02075427715158662,
      -3.0730701317742675e-05,
      0.0
    ],
    "scaler_scale": [
      0.0560389342904668,
      0.09426626553070405,
      0.07278305985917766,
      0.04128880636283022,
      0.5910002479410437,
      0.0010959284845739495,
      1.0
    ],
    "metrics": {
      "accuracy": 1.0,
      "precision": 1.0,
      "recall": 1.0,
      "f1_score": 1.0,
      "confusion_matrix": [
        [
          238,
          0
        ],
        [
          0,
          265
        ]
      ]
    },
    "features": [
      "return_1",
      "return_3",
      "ma_distance_7",
      "volatility_7",
      "volume_change",
      "ma_crossover",
      "target"
    ]
  },
  "Tether": {
    "weights": [
      -0.030590789336564155,
      0.0013609499342946746,
      -0.013827541387954825,
      0.16372090186097701,
      -0.05980799803212933,
      -0.007613701322778998,
      9.006390640151567
    ],
    "bias": -4.891706420410861,
    "scaler_center": [
      0.0,
      0.0,
      0.0,
      0.0021222796248854293,
      -0.013424999264189774,
      0.0,
      0.0
    ],
    "scaler_scale": [
      0.0014631275658806564,
      0.001711806537160021,
      0.0011252185294026496,
      0.0045790697105799645,
      0.5084882464827455,
      0.000606614136152761,
      1.0
    ],
    "metrics": {
      "accuracy": 1.0,
      "precision": 1.0,
      "recall": 1.0,
      "f1_score": 1.0,
      "confusion_matrix": [
        [
          235,
          0
        ],
        [
          0,
          226
        ]
      ]
    },
    "features": [
      "return_1",
      "return_3",
      "ma_distance_7",
      "volatility_7",
      "volume_change",
      "ma_crossover",
      "target"
    ]
  },
  "Tron": {
    "weights": [
      -0.05126622363159116,
      0.08677424595983219,
      -0.04504847087798432,
      0.02073992275266267,
      -0.013674862310997411,
      -0.01595829949540339,
      8.339739731824146
    ],
    "bias": 4.16575181780912,
    "scaler_center": [
      7.329999464023018e-05,
      -0.002528951692011172,
      -0.00413314644459885,
      0.049826297074904616,
      -0.007247357364831286,
      -3.2270002910592815e-05,
      1.0
    ],
    "scaler_scale": [
      0.05849406517787642,
      0.10473489738617464,
      0.08205409972239452,
      0.04063136092163317,
      0.22893565614446237,
      0.0014577340184138777,
      1.0
    ],
    "metrics": {
      "accuracy": 1.0,
      "precision": 1.0,
      "recall": 1.0,
      "f1_score": 1.0,
      "confusion_matrix": [
        [
          134,
          0
        ],
        [
          0,
          142
        ]
      ]
    },
    "features": [
      "return_1",
      "return_3",
      "ma_distance_7",
      "volatility_7",
      "volume_change",
      "ma_crossover",
      "target"
    ]
  },
  "USDCoin": {
    "weights": [
      -0.09410578289518193,
      -0.0004865175215036802,
      -0.1702032525312038,
      -0.11234004791231433,
      -0.005379364988146557,
      -0.020858821564035235,
      7.729601063323887
    ],
    "bias": 3.9016422924736225,
    "scaler_center": [
      3.128410352526423e-05,
      -3.378466781345235e-05,
      -4.22946456324969e-05,
      0.003395027924105888,
      0.0035885151360508516,
      -3.659285714441296e-06,
      1.0
    ],
    "scaler_scale": [
      0.0038903236241242256,
      0.004177271255048964,
      0.002986026786146825,
      0.0029801557986494738,
      0.28689475099979544,
      0.0012252295053214457,
      1.0
    ],
    "metrics": {
      "accuracy": 1.0,
      "precision": 1.0,
      "recall": 1.0,
      "f1_score": 1.0,
      "confusion_matrix": [
        [
          100,
          0
        ],
        [
          0,
          98
        ]
      ]
    },
    "features": [
      "return_1",
      "return_3",
      "ma_distance_7",
      "volatility_7",
      "volume_change",
      "ma_crossover",
      "target"
    ]
  },
  "Uniswap": {
    "weights": [
      -0.2271807882731,
      0.04403071810316454,
      -0.03836600188860099,
      0.10882462750484706,
      -0.017809397638750907,
      -0.07580670543807014,
      5.763817607429834
    ],
    "bias": 2.9219337320138443,
    "scaler_center": [
      0.0019993336023973463,
      0.02078915108746404,
      0.013153930483204438,
      0.0697403813875123,
      -0.013868192137959534,
      0.2180699328571425,
      1.0
    ],
    "scaler_scale": [
      0.0928061058700374,
      0.170133992211757,
      0.12687456164779057,
      0.040946370360116086,
      0.5032129881572874,
      1.0614254999999968,
      1.0
    ],
    "metrics": {
      "accuracy": 1.0,
      "precision": 1.0,
      "recall": 1.0,
      "f1_score": 1.0,
      "confusion_matrix": [
        [
          26,
          0
        ],
        [
          0,
          30
        ]
      ]
    },
    "features": [
      "return_1",
      "return_3",
      "ma_distance_7",
      "volatility_7",
      "volume_change",
      "ma_crossover",
      "target"
    ]
  },
  "WrappedBitcoin": {
    "weights": [
      -0.045743631791698755,
      -0.010885030630327756,
      -0.02071979258321538,
      0.016092369232507446,
      0.013723437651266615,
      0.04101332273394667,
      7.601137375915415
    ],
    "bias": 3.9100192033983054,
    "scaler_center": [
      0.002206477882860658,
      0.0057268112406266836,
      0.008023936223101819,
      0.027552199188629778,
      0.04246434296761126,
      10.0,
      1.0
    ],
    "scaler_scale": [
      0.02966985930308083,
      0.05999992258061729,
      0.04989538302127541,
      0.023313196839907582,
      1.033930472251294,
      20.0,
      1.0
    ],
    "metrics": {
      "accuracy": 1.0,
      "precision": 1.0,
      "recall": 1.0,
      "f1_score": 1.0,
      "confusion_matrix": [
        [
          86,
          0
        ],
        [
          0,
          89
        ]
      ]
    },
    "features": [
      "return_1",
      "return_3",
      "ma_distance_7",
      "volatility_7",
      "volume_change",
      "ma_crossover",
      "target"
    ]
  },
  "XRP": {
    "weights": [
      -0.02520916210832684,
      -0.03950546924329712,
      0.047184400156736014,
      0.018870730482774618,
      0.01691076008919415,
      0.0006574128242667335,
      9.478928454716407
    ],
    "bias": -4.848057723329185,
    "scaler_center": [
      -0.0031351533814250043,
      -0.006684181319724591,
      -0.008070298264218479,
      0.036234376790889325,
      -0.030623974705979773,
      -8.399156285715526e-05,
      0.0
    ],
    "scaler_scale": [
      0.039406983328671485,
      0.07860577386537776,
      0.0577644997674013,
      0.03553892577326368,
      0.6016750312721932,
      0.0018377799008573777,
      1.0
    ],
    "metrics": {
      "accuracy": 1.0,
      "precision": 1.0,
      "recall": 1.0,
      "f1_score": 1.0,
      "confusion_matrix": [
        [
          260,
          0
        ],
        [
          0,
          290
        ]
      ]
    },
    "features": [
      "return_1",
      "return_3",
      "ma_distance_7",
      "volatility_7",
      "volume_change",
      "ma_crossover",
      "target"
    ]
  }
}