{
    "BinanceCoin": {
        "features_order": [
            "return_1",
            "return_3",
            "ma_distance_7",
            "volatility_7",
            "volume_change",
            "ma_crossover",
            "RSI_14"
        ],
        "scaler_means": [
            0.007253374977609502,
            0.02468254073179709,
            0.016511446301421893,
            0.056878189596060176,
            7.601634222199308,
            0.015644265586343273,
            52.282809618203615
        ],
        "scaler_scales": [
            0.07916084841891566,
            0.17447003869690755,
            0.1271283141869451,
            0.047611517063629566,
            255.1223926024059,
            0.09903526800546616,
            17.89219877355144
        ],
        "weights": [
            -0.038310250553460296,
            -0.13991675531924916,
            0.030906379741634956,
            0.17367123379033408,
            -0.16815239201541501,
            -0.04435783590174473,
            0.0982459190017367
        ],
        "intercept": -0.0019303080289795277,
        "test_accuracy": 0.5209790209790209,
        "training_samples": 1429
    },
    "Bitcoin": {
        "features_order": [
            "return_1",
            "return_3",
            "ma_distance_7",
            "volatility_7",
            "volume_change",
            "ma_crossover",
            "RSI_14"
        ],
        "scaler_means": [
            0.0018033198709150229,
            0.005346592962804079,
            0.0036919495267070017,
            0.03229865350492485,
            0.07847953824459324,
            0.0038356292767133177,
            52.75282960988634
        ],
        "scaler_scales": [
            0.038836675103610004,
            0.06689804673998309,
            0.05253042420110785,
            0.021677634691106423,
            0.5222739062792975,
            0.042597621775959674,
            19.106020047848975
        ],
        "weights": [
            -0.06719537049239212,
            0.047312692015583094,
            -0.16218837196864172,
            -0.035478842390775325,
            0.02765311025515307,
            -0.03218395163453069,
            0.24379563912780533
        ],
        "intercept": 0.001327413265513967,
        "test_accuracy": 0.5527272727272727,
        "training_samples": 2748
    },
    "Cardano": {
        "features_order": [
            "return_1",
            "return_3",
            "ma_distance_7",
            "volatility_7",
            "volume_change",
            "ma_crossover",
            "RSI_14"
        ],
        "scaler_means": [
            0.0039243960831473025,
            0.013663888592427462,
            0.005697851025188115,
            0.060585648613658734,
            0.09490767405350206,
            0.004082982643712292,
            49.07983951956711
        ],
        "scaler_scales": [
            0.08494050148568627,
            0.1790823383070677,
            0.12116869904020296,
            0.055313347316223054,
            0.5394266070524486,
            0.09239812722377223,
            18.533531811642877
        ],
        "weights": [
            -0.3602197615389414,
            0.14057688265596194,
            0.08804722712111243,
            0.10798684704094844,
            0.01894311900831685,
            -0.20123081526591818,
            0.15596416833211343
        ],
        "intercept": 0.001705309009632938,
        "test_accuracy": 0.5238095238095238,
        "training_samples": 1361
    },
    "ChainLink": {
        "features_order": [
            "return_1",
            "return_3",
            "ma_distance_7",
            "volatility_7",
            "volume_change",
            "ma_crossover",
            "RSI_14"
        ],
        "scaler_means": [
            0.006028571755150215,
            0.017703592912962706,
            0.01110577346297744,
            0.06822878058585388,
            0.10988146469947753,
            0.011748370272759991,
            52.80656205107293
        ],
        "scaler_scales": [
            0.07894738071934353,
            0.13692688038309,
            0.1073058633123573,
            0.04035037403037043,
            0.6785959410132539,
            0.09066570105611105,
            18.035335527455018
        ],
        "weights": [
            -0.13035395152202384,
            0.06824893863499847,
            -0.015284216096308345,
            -0.04441436205810775,
            0.05393810036911321,
            0.009480778914106246,
            -0.027661945446343445
        ],
        "intercept": -0.0003716351866655259,
        "test_accuracy": 0.5636363636363636,
        "training_samples": 1372
    },
    "Cosmos": {
        "features_order": [
            "return_1",
            "return_3",
            "ma_distance_7",
            "volatility_7",
            "volume_change",
            "ma_crossover",
            "RSI_14"
        ],
        "scaler_means": [
            0.003458582861528224,
            0.009936063890635624,
            0.005318794264608802,
            0.05764975776343362,
            0.06749971889032082,
            0.002834946124491308,
            50.91995157031334
        ],
        "scaler_scales": [
            0.0653998833400095,
            0.10932316606491056,
            0.08468823532086008,
            0.03162391031204639,
            0.5321789377912163,
            0.06503148234388936,
            16.236516888549993
        ],
        "weights": [
            -0.23288792251243512,
            -0.2510709230229778,
            0.18292749327880597,
            0.04738715707043362,
            -0.09213373975721056,
            -0.44922270969904293,
            0.3424925929321102
        ],
        "intercept": 0.001588649410412325,
        "test_accuracy": 0.5508982035928144,
        "training_samples": 832
    },
    "CryptocomCoin": {
        "features_order": [
            "return_1",
            "return_3",
            "ma_distance_7",
            "volatility_7",
            "volume_change",
            "ma_crossover",
            "RSI_14"
        ],
        "scaler_means": [
            0.0038422060187660954,
            0.011450007122530248,
            0.005410865151399618,
            0.048443650668613315,
            0.28241833299875024,
            0.0030727548718478674,
            50.47163359738148
        ],
        "scaler_scales": [
            0.07758104728932734,
            0.14742923490676443,
            0.10615760862505165,
            0.05756579287379342,
            5.206304610016925,
            0.08194738426352903,
            19.99319470385608
        ],
        "weights": [
            -0.08918465576626576,
            0.11368059125529086,
            0.0910296426144257,
            -0.13529995641555306,
            -0.7411909358602078,
            0.004079214506366489,
            0.15908133683660391
        ],
        "intercept": -0.02404370768799811,
        "test_accuracy": 0.5351351351351351,
        "training_samples": 922
    },
    "Dogecoin": {
        "features_order": [
            "return_1",
            "return_3",
            "ma_distance_7",
            "volatility_7",
            "volume_change",
            "ma_crossover",
            "RSI_14"
        ],
        "scaler_means": [
            0.003036443558572787,
            0.010305234110528588,
            0.003676443331830389,
            0.052121255910265396,
            0.1955867583231351,
            0.0017750777873286536,
            47.160192772299816
        ],
        "scaler_scales": [
            0.07135316967844242,
            0.14947865341249814,
            0.10572867291744377,
            0.04652884088671128,
            2.3112017891798144,
            0.08068510084384645,
            17.167106122490107
        ],
        "weights": [
            -0.10241266181037498,
            0.06469116184194151,
            -0.015593817551947355,
            0.04868043961004322,
            -0.022695220342176477,
            0.00234548310619053,
            0.08540704654424619
        ],
        "intercept": -0.0004388081096480419,
        "test_accuracy": 0.5218181818181818,
        "training_samples": 2747
    },
    "EOS": {
        "features_order": [
            "return_1",
            "return_3",
            "ma_distance_7",
            "volatility_7",
            "volume_change",
            "ma_crossover",
            "RSI_14"
        ],
        "scaler_means": [
            0.0029239959940185415,
            0.00874784171908773,
            0.0028615792503828906,
            0.059712671228769096,
            0.05810108047050241,
            0.00019328944354159072,
            49.057449667963105
        ],
        "scaler_scales": [
            0.0708187086738204,
            0.1287106829856175,
            0.09746625731662255,
            0.03823358872966929,
            0.4412844434023292,
            0.0801871622697389,
            18.655664241271865
        ],
        "weights": [
            -0.2541274283827776,
            0.16299444586179632,
            -0.19442060028100522,
            0.05860894635159192,
            0.08356370326738767,
            0.02241101081672352,
            0.10077140348891053
        ],
        "intercept": 0.00119998983471416,
        "test_accuracy": 0.5223367697594502,
        "training_samples": 1453
    },
    "Ethereum": {
        "features_order": [
            "return_1",
            "return_3",
            "ma_distance_7",
            "volatility_7",
            "volume_change",
            "ma_crossover",
            "RSI_14"
        ],
        "scaler_means": [
            0.0048447208533848336,
            0.015200110616059234,
            0.010449283351789932,
            0.05238956285785065,
            0.09697048762058046,
            0.009928095037764612,
            52.039551894605
        ],
        "scaler_scales": [
            0.06258975577686272,
            0.11609198108844565,
            0.09076902503199986,
            0.03284640843767324,
            0.5402116974847402,
            0.07423386110846805,
            19.434022114251224
        ],
        "weights": [
            -0.2790272156709193,
            -0.1027349617517313,
            0.16200646752059333,
            0.050869007755050745,
            0.09651694357527378,
            -0.12732203200457026,
            0.21858206686406292
        ],
        "intercept": 0.0005770095312244245,
        "test_accuracy": 0.5093023255813953,
        "training_samples": 2147
    },
    "Iota": {
        "features_order": [
            "return_1",
            "return_3",
            "ma_distance_7",
            "volatility_7",
            "volume_change",
            "ma_crossover",
            "RSI_14"
        ],
        "scaler_means": [
            0.0022600631904236487,
            0.006904992039923461,
            0.0007962438723904794,
            0.05948108400575418,
            0.08705999021591021,
            -0.0014938808466524035,
            48.19601771182942
        ],
        "scaler_scales": [
            0.0721394883210983,
            0.13786859105863672,
            0.10293902570345223,
            0.03892392350116457,
            0.5129288497034404,
            0.08429700163052628,
            17.90247760808921
        ],
        "weights": [
            -0.27702542363437793,
            0.2187908503565375,
            -0.2462554913405929,
            0.13758337646213126,
            0.05053708331717742,
            0.0028421661365298397,
            0.09380002445793652
        ],
        "intercept": 0.0016298387293013235,
        "test_accuracy": 0.5728813559322034,
        "training_samples": 1471
    },
    "Litecoin": {
        "features_order": [
            "return_1",
            "return_3",
            "ma_distance_7",
            "volatility_7",
            "volume_change",
            "ma_crossover",
            "RSI_14"
        ],
        "scaler_means": [
            0.0019379407227401392,
            0.005761033353719387,
            0.0020019654738527414,
            0.046332147209862645,
            0.12243491403653903,
            0.0011493223061813758,
            48.805277357573274
        ],
        "scaler_scales": [
            0.059045385757405686,
            0.1053433131467395,
            0.07962490070422021,
            0.036220899939179464,
            0.8061785433440039,
            0.06323736066850462,
            17.817057260336483
        ],
        "weights": [
            -0.1453535193651935,
            -0.15458408817564578,
            0.1343485386945636,
            0.07384814767488079,
            -0.029703440637117395,
            -0.07614938728553983,
            0.00827676401774079
        ],
        "intercept": -0.0008692399014398554,
        "test_accuracy": 0.5381818181818182,
        "training_samples": 2748
    },
    "Monero": {
        "features_order": [
            "return_1",
            "return_3",
            "ma_distance_7",
            "volatility_7",
            "volume_change",
            "ma_crossover",
            "RSI_14"
        ],
        "scaler_means": [
            0.00414759727629397,
            0.012643317150326893,
            0.007014131976545417,
            0.0593121337656365,
            0.15319446383481522,
            0.005596544336145121,
            50.22731061994312
        ],
        "scaler_scales": [
            0.07086239910873057,
            0.12771790765723715,
            0.09538308527491068,
            0.03811882696262835,
            0.8982179996334217,
            0.07741843546795789,
            17.30986068507038
        ],
        "weights": [
            -0.14210059064216962,
            -0.09904494062386165,
            0.02008530421419911,
            -0.002800960231863322,
            0.13458771290280855,
            0.009648610922190099,
            0.038845313570843865
        ],
        "intercept": 2.4358754895884016e-05,
        "test_accuracy": 0.5482625482625483,
        "training_samples": 2589
    },
    "NEM": {
        "features_order": [
            "return_1",
            "return_3",
            "ma_distance_7",
            "volatility_7",
            "volume_change",
            "ma_crossover",
            "RSI_14"
        ],
        "scaler_means": [
            0.00641476355164995,
            0.01800110128752336,
            0.010885191666519254,
            0.0675561178100026,
            0.2931971459848837,
            0.009549272115835086,
            49.56632055856416
        ],
        "scaler_scales": [
            0.0897914042959037,
            0.14659480075155287,
            0.10667365616139568,
            0.05966032342289521,
            1.5119493451606334,
            0.0835676466155216,
            17.230758134093314
        ],
        "weights": [
            -0.2168129323429235,
            -0.10155268994106344,
            0.007619954176284551,
            0.04162937560175658,
            0.09500158471830239,
            -0.032403131702097424,
            0.10436843616382548
        ],
        "intercept": -0.0016299672156197043,
        "test_accuracy": 0.5164835164835165,
        "training_samples": 2275
    },
    "Stellar": {
        "features_order": [
            "return_1",
            "return_3",
            "ma_distance_7",
            "volatility_7",
            "volume_change",
            "ma_crossover",
            "RSI_14"
        ],
        "scaler_means": [
            0.004682681601930495,
            0.016242483983859028,
            0.007051173416543856,
            0.05963359460841726,
            0.3166917599935037,
            0.004983107297812306,
            47.42808329700636
        ],
        "scaler_scales": [
            0.08246321799820072,
            0.20777871645542292,
            0.11776733869768705,
            0.05375688467812568,
            2.195097177224869,
            0.08410022567591595,
            16.968134580502376
        ],
        "weights": [
            -0.10370569621854535,
            -0.02159001607870975,
            -0.05846539256633746,
            0.08820473522082986,
            0.09522665704619926,
            -0.044806054117167184,
            0.04248467967118806
        ],
        "intercept": -0.0009856863016540509,
        "test_accuracy": 0.5168986083499006,
        "training_samples": 2514
    },
    "Tether": {
        "features_order": [
            "return_1",
            "return_3",
            "ma_distance_7",
            "volatility_7",
            "volume_change",
            "ma_crossover",
            "RSI_14"
        ],
        "scaler_means": [
            1.6540543779622582e-05,
            2.9810912599537834e-05,
            3.3814906583961767e-06,
            0.004093553123962246,
            0.48369414622299217,
            8.655746049757523e-05,
            49.63094876921569
        ],
        "scaler_scales": [
            0.006023223954392614,
            0.00797209773377345,
            0.005721783780591209,
            0.004813107374468602,
            10.186813329620268,
            0.004041278117796017,
            12.630696715905733
        ],
        "weights": [
            -0.32230629707838354,
            -0.011653590849488242,
            -0.20640806093231925,
            0.2799746383708177,
            -0.11180062819774993,
            -0.015742479132984107,
            -0.22245364657059954
        ],
        "intercept": -0.015451074705565426,
        "test_accuracy": 0.5939849624060151,
        "training_samples": 1991
    },
    "Tron": {
        "features_order": [
            "return_1",
            "return_3",
            "ma_distance_7",
            "volatility_7",
            "volume_change",
            "ma_crossover",
            "RSI_14"
        ],
        "scaler_means": [
            0.00632964714105926,
            0.021641716297539804,
            0.010095178238089517,
            0.0659816367334016,
            0.06432481969975443,
            0.0060914461504180915,
            49.658511216172265
        ],
        "scaler_scales": [
            0.09636240605770144,
            0.218460314489678,
            0.14255195782832,
            0.06435653641157155,
            0.5418772289622514,
            0.10428920385754635,
            17.671687922326715
        ],
        "weights": [
            -0.15812296548092133,
            0.3847129370804135,
            -0.1750107084056432,
            0.04979842469360568,
            -0.05701652967441146,
            -0.05636066115580341,
            -0.017354463513384526
        ],
        "intercept": 0.002033800900643473,
        "test_accuracy": 0.5072463768115942,
        "training_samples": 1379
    },
    "USDCoin": {
        "features_order": [
            "return_1",
            "return_3",
            "ma_distance_7",
            "volatility_7",
            "volume_change",
            "ma_crossover",
            "RSI_14"
        ],
        "scaler_means": [
            -3.4855764946131182e-06,
            -1.738421328255089e-05,
            -4.0037284263779646e-05,
            0.004104368533288631,
            0.06357991683752189,
            -6.492208683647257e-05,
            49.67028260349216
        ],
        "scaler_scales": [
            0.005074228785973357,
            0.005663161585564253,
            0.004023168439570566,
            0.003507590846974757,
            0.4752191649831114,
            0.002062782219004058,
            7.445021401081487
        ],
        "weights": [
            -0.2079182037901573,
            0.05735889730635884,
            -0.5672260772584606,
            -0.20751741486128603,
            -0.03267614256421634,
            0.031006567035924908,
            -0.20134371877353094
        ],
        "intercept": -0.019956599098473117,
        "test_accuracy": 0.5707070707070707,
        "training_samples": 989
    },
    "WrappedBitcoin": {
        "features_order": [
            "return_1",
            "return_3",
            "ma_distance_7",
            "volatility_7",
            "volume_change",
            "ma_crossover",
            "RSI_14"
        ],
        "scaler_means": [
            0.0040641621104737105,
            0.012062766115727,
            0.010452271853289955,
            0.03366602591689385,
            0.6851301333389904,
            0.01158587184532725,
            56.66785015474041
        ],
        "scaler_scales": [
            0.04166905638054217,
            0.06683294470542103,
            0.05225679295854665,
            0.02529851115160489,
            3.267053029890407,
            0.041339299708431115,
            17.83427737419589
        ],
        "weights": [
            -0.14966019949234455,
            -0.059702320084267575,
            -0.10575016565277645,
            0.044543912000770965,
            -0.0022591416115958483,
            -0.2115253954837035,
            0.3447661088636384
        ],
        "intercept": 0.0036476623579621034,
        "test_accuracy": 0.5142857142857142,
        "training_samples": 875
    },
    "XRP": {
        "features_order": [
            "return_1",
            "return_3",
            "ma_distance_7",
            "volatility_7",
            "volume_change",
            "ma_crossover",
            "RSI_14"
        ],
        "scaler_means": [
            0.0032471866751264647,
            0.010991274971856702,
            0.004553831063700697,
            0.04909030038433604,
            0.19794715098124402,
            0.0029817852890164226,
            46.22529182156185
        ],
        "scaler_scales": [
            0.0760290586445045,
            0.15711422130341787,
            0.10589168377653119,
            0.05521722350743616,
            0.9984775964679015,
            0.08191188774468289,
            18.720852349409604
        ],
        "weights": [
            -0.09369628380493498,
            -0.1302253614708134,
            0.08947856091261835,
            0.05732218844678027,
            0.04957913278410545,
            0.03134301433814435,
            0.09595987313380865
        ],
        "intercept": -0.0011431473782152154,
        "test_accuracy": 0.5127272727272727,
        "training_samples": 2748
    }
}