{
  "Aave": {
    "weights": [
      -0.022968173161661488,
      -0.12882312160085163,
      -0.20625889327839853,
      0.31705430613205693,
      0.10587552588077853,
      0.4516518955456845
    ],
    "bias": 0.04929478071569547,
    "scaler_center": [
      0.008703036589466251,
      0.018548988732200233,
      2.985141511428573,
      0.06292255215643966,
      -0.007632903526023804,
      1.8867914050000039
    ],
    "scaler_scale": [
      0.103588915323366,
      0.15818949589098166,
      15.314206824642863,
      0.03487193785891367,
      0.43001096977265696,
      17.540581872500017
    ],
    "metrics": {
      "accuracy": 0.5185185185185185,
      "precision": 0.5106382978723404,
      "recall": 0.8888888888888888,
      "f1_score": 0.6486486486486487,
      "confusion_matrix": [
        [
          4,
          23
        ],
        [
          3,
          24
        ]
      ]
    },
    "features": [
      "return_1",
      "return_3",
      "ma_distance_7",
      "volatility_7",
      "volume_change",
      "momentum"
    ]
  },
  "BinanceCoin": {
    "weights": [
      0.04897505137539725,
      0.0032161021098569094,
      -0.13621386266631358,
      0.10054419812026248,
      -0.07987344795279351,
      -0.0015457681206580546
    ],
    "bias": 0.054020343152485946,
    "scaler_center": [
      0.001068206986859499,
      0.004626658190561184,
      0.03388000241688249,
      0.04344200223896551,
      -0.01994696666454454,
      0.029257614300000512
    ],
    "scaler_scale": [
      0.056599984192967356,
      0.10517484361560805,
      0.8941268495924478,
      0.035970804148225156,
      0.2875667207511295,
      1.1110495102281832
    ],
    "metrics": {
      "accuracy": 0.5121951219512195,
      "precision": 0.5737704918032787,
      "recall": 0.4430379746835443,
      "f1_score": 0.5,
      "confusion_matrix": [
        [
          77,
          52
        ],
        [
          88,
          70
        ]
      ]
    },
    "features": [
      "return_1",
      "return_3",
      "ma_distance_7",
      "volatility_7",
      "volume_change",
      "momentum"
    ]
  },
  "Bitcoin": {
    "weights": [
      -0.0642853230838946,
      -0.0758153504609518,
      0.0568374186069646,
      -0.056620987529529994,
      0.023981247088141252,
      0.24948808251578825
    ],
    "bias": 0.16990940739692773,
    "scaler_center": [
      0.001410612135669287,
      0.003910548507380707,
      1.0047040666852922,
      0.026735003423886124,
      -0.013894415145364769,
      2.3415527343750284
    ],
    "scaler_scale": [
      0.029105846275066433,
      0.0600194026558554,
      20.0,
      0.026379294048893318,
      0.35826280355960016,
      20.0
    ],
    "metrics": {
      "accuracy": 0.5581818181818182,
      "precision": 0.5576519916142557,
      "recall": 0.8926174496644296,
      "f1_score": 0.6864516129032258,
      "confusion_matrix": [
        [
          41,
          211
        ],
        [
          32,
          266
        ]
      ]
    },
    "features": [
      "return_1",
      "return_3",
      "ma_distance_7",
      "volatility_7",
      "volume_change",
      "momentum"
    ]
  },
  "Cardano": {
    "weights": [
      -0.2238752819516389,
      0.06819524372024682,
      0.0026295121510472317,
      0.02767981221642707,
      0.030101781604390046,
      0.025544526789754485
    ],
    "bias": -0.0141379278626515,
    "scaler_center": [
      0.0002929902092436709,
      -0.0018751701275062649,
      -0.0002110100605142856,
      0.050355253935571796,
      -0.027807649164402926,
      -8.859360059999821e-05
    ],
    "scaler_scale": [
      0.061779687985520915,
      0.1073922314849578,
      0.005980088630085714,
      0.03470306632262091,
      0.45442086017756445,
      0.007739334302500005
    ],
    "metrics": {
      "accuracy": 0.48905109489051096,
      "precision": 0.5306122448979592,
      "recall": 0.5234899328859061,
      "f1_score": 0.527027027027027,
      "confusion_matrix": [
        [
          56,
          69
        ],
        [
          71,
          78
        ]
      ]
    },
    "features": [
      "return_1",
      "return_3",
      "ma_distance_7",
      "volatility_7",
      "volume_change",
      "momentum"
    ]
  },
  "ChainLink": {
    "weights": [
      -0.08683838183571617,
      0.009371414838596475,
      -0.06268356002324749,
      -0.04084801881228819,
      0.04257650059588762,
      0.055629062441637595
    ],
    "bias": -0.02551729775406344,
    "scaler_center": [
      -0.0011163464804390677,
      0.003429711017447934,
      0.0024930919785716155,
      0.05820010291617331,
      -0.023468882559089355,
      0.001574458918999988
    ],
    "scaler_scale": [
      0.0748986615058061,
      0.14362686277119305,
      0.08887726877179858,
      0.04656014730961511,
      0.41535081004042373,
      0.11341812888294281
    ],
    "metrics": {
      "accuracy": 0.5289855072463768,
      "precision": 0.575,
      "recall": 0.46621621621621623,
      "f1_score": 0.5149253731343284,
      "confusion_matrix": [
        [
          77,
          51
        ],
        [
          79,
          69
        ]
      ]
    },
    "features": [
      "return_1",
      "return_3",
      "ma_distance_7",
      "volatility_7",
      "volume_change",
      "momentum"
    ]
  },
  "Cosmos": {
    "weights": [
      -0.10465937715543698,
      -0.11376040600971901,
      -0.11479008371941876,
      0.05236837101145623,
      -0.05209618986585093,
      0.1322322618946157
    ],
    "bias": 0.03715552269354296,
    "scaler_center": [
      0.0006695685755342407,
      0.0032764894134516,
      0.005778987937858027,
      0.047946875695615204,
      0.0033231361080152677,
      0.012662243320000321
    ],
    "scaler_scale": [
      0.06565111423048162,
      0.11359639174633157,
      0.32819732719428574,
      0.031064585510398278,
      0.28109013265413696,
      0.43815333057500006
    ],
    "metrics": {
      "accuracy": 0.48214285714285715,
      "precision": 0.4787234042553192,
      "recall": 0.5421686746987951,
      "f1_score": 0.5084745762711864,
      "confusion_matrix": [
        [
          36,
          49
        ],
        [
          38,
          45
        ]
      ]
    },
    "features": [
      "return_1",
      "return_3",
      "ma_distance_7",
      "volatility_7",
      "volume_change",
      "momentum"
    ]
  },
  "CryptocomCoin": {
    "weights": [
      -0.05368842276464983,
      0.33921236639866237,
      0.20044495524454833,
      -0.1285283331991483,
      -0.06222494797941519,
      -0.3725497032886758
    ],
    "bias": 0.05887537509525248,
    "scaler_center": [
      -0.00019146986852969228,
      0.0009253736785035382,
      -2.915277791428958e-05,
      0.033821238923287075,
      -0.011899044402367609,
      1.8564064200000778e-05
    ],
    "scaler_scale": [
      0.04117173930628057,
      0.08823540828677248,
      0.004028487545078554,
      0.0267043377211951,
      0.30225190628039694,
      0.004947195909800008
    ],
    "metrics": {
      "accuracy": 0.5053763440860215,
      "precision": 0.5671641791044776,
      "recall": 0.37623762376237624,
      "f1_score": 0.4523809523809524,
      "confusion_matrix": [
        [
          56,
          29
        ],
        [
          63,
          38
        ]
      ]
    },
    "features": [
      "return_1",
      "return_3",
      "ma_distance_7",
      "volatility_7",
      "volume_change",
      "momentum"
    ]
  },
  "Dogecoin": {
    "weights": [
      -0.07265456637864483,
      0.034797845272218166,
      0.00046272035175485687,
      0.055325149846710865,
      0.031582810351208315,
      0.0032367841052395306
    ],
    "bias": -0.17587554019226945,
    "scaler_center": [
      -0.0024635269013952854,
      -0.007523639700119267,
      -2.3355002973141802e-06,
      0.038112051630351355,
      -0.017866551906067785,
      -2.269000105999995e-06
    ],
    "scaler_scale": [
      0.04253207223106922,
      0.07752679708750573,
      3.777743353294646e-05,
      0.042503674639824976,
      0.49754824401849473,
      4.690758222912533e-05
    ],
    "metrics": {
      "accuracy": 0.5072727272727273,
      "precision": 0.5212765957446809,
      "recall": 0.1781818181818182,
      "f1_score": 0.26558265582655827,
      "confusion_matrix": [
        [
          230,
          45
        ],
        [
          226,
          49
        ]
      ]
    },
    "features": [
      "return_1",
      "return_3",
      "ma_distance_7",
      "volatility_7",
      "volume_change",
      "momentum"
    ]
  },
  "EOS": {
    "weights": [
      -0.19649119984588725,
      0.024124741939297818,
      -0.05622606486774201,
      0.05081778574407908,
      0.06297886962046464,
      0.06700796768666907
    ],
    "bias": -0.04622861281068616,
    "scaler_center": [
      -0.000540562009554324,
      -0.0025612642368952887,
      -0.007260123697143683,
      0.05064175438782146,
      -0.019424737671640324,
      -0.007553970880000094
    ],
    "scaler_scale": [
      0.0536395906608938,
      0.10176272857630764,
      0.2718253588042858,
      0.04443010149187997,
      0.3133044908169475,
      0.3624922489050002
    ],
    "metrics": {
      "accuracy": 0.5136986301369864,
      "precision": 0.5263157894736842,
      "recall": 0.3401360544217687,
      "f1_score": 0.4132231404958678,
      "confusion_matrix": [
        [
          100,
          45
        ],
        [
          97,
          50
        ]
      ]
    },
    "features": [
      "return_1",
      "return_3",
      "ma_distance_7",
      "volatility_7",
      "volume_change",
      "momentum"
    ]
  },
  "Ethereum": {
    "weights": [
      -0.18786472750030106,
      0.06826557693511678,
      0.12043755326771877,
      0.024191794163579146,
      0.06459828454573201,
      -0.12095998266194453
    ],
    "bias": -0.03845361103889463,
    "scaler_center": [
      -0.000572940060177829,
      0.0032107251496662492,
      0.01887839181082629,
      0.044923367404071865,
      -0.010979780179809828,
      0.03318676996265513
    ],
    "scaler_scale": [
      0.0513351241167776,
      0.09965807373251409,
      6.397786519000011,
      0.03778982711482628,
      0.357775977545602,
      8.02560640595019
    ],
    "metrics": {
      "accuracy": 0.5034802784222738,
      "precision": 0.5885714285714285,
      "recall": 0.4204081632653061,
      "f1_score": 0.49047619047619045,
      "confusion_matrix": [
        [
          114,
          72
        ],
        [
          142,
          103
        ]
      ]
    },
    "features": [
      "return_1",
      "return_3",
      "ma_distance_7",
      "volatility_7",
      "volume_change",
      "momentum"
    ]
  },
  "Iota": {
    "weights": [
      -0.2472197595376333,
      0.08342747506992242,
      -0.05798326742995329,
      0.14604604260982,
      0.026970300944215805,
      0.034237823998028515
    ],
    "bias": -0.10740207259450751,
    "scaler_center": [
      -0.0015816044576605348,
      -0.004664246566239982,
      -0.0019193547288571255,
      0.049138439551675725,
      -0.028674399979331855,
      -0.0017451322370000133
    ],
    "scaler_scale": [
      0.06363952827093888,
      0.10687855907662658,
      0.033398172862714265,
      0.03891180383850052,
      0.45616987050293445,
      0.04036451344451397
    ],
    "metrics": {
      "accuracy": 0.581081081081081,
      "precision": 0.6732673267326733,
      "recall": 0.4276729559748428,
      "f1_score": 0.5230769230769231,
      "confusion_matrix": [
        [
          104,
          33
        ],
        [
          91,
          68
        ]
      ]
    },
    "features": [
      "return_1",
      "return_3",
      "ma_distance_7",
      "volatility_7",
      "volume_change",
      "momentum"
    ]
  },
  "Litecoin": {
    "weights": [
      -0.08315467912646986,
      -0.005050835259467563,
      0.02797515355527801,
      0.05105010166604355,
      -0.013557239215116021,
      -0.04989228896998296
    ],
    "bias": -0.07969535571494471,
    "scaler_center": [
      -0.0011477256892356569,
      -0.0027036998381589905,
      -0.011973636490957729,
      0.03715632384746023,
      -0.02617024377684274,
      -0.012133305143894546
    ],
    "scaler_scale": [
      0.03823103573865835,
      0.0710834666315415,
      0.789328819020116,
      0.03775272952243568,
      0.4107560233285834,
      1.0448562202352285
    ],
    "metrics": {
      "accuracy": 0.49272727272727274,
      "precision": 0.5443037974683544,
      "recall": 0.2935153583617747,
      "f1_score": 0.38137472283813745,
      "confusion_matrix": [
        [
          185,
          72
        ],
        [
          207,
          86
        ]
      ]
    },
    "features": [
      "return_1",
      "return_3",
      "ma_distance_7",
      "volatility_7",
      "volume_change",
      "momentum"
    ]
  },
  "Monero": {
    "weights": [
      -0.1107932574605542,
      -0.04304975125638953,
      -0.022786243009376924,
      -0.000622374018212421,
      0.07597298088566876,
      0.01711768798749602
    ],
    "bias": -0.04469375849539061,
    "scaler_center": [
      -0.0012884465555479396,
      -0.0028768205695532956,
      -0.006464636231301418,
      0.051256615261259006,
      -0.016272690621801422,
      -0.005523517727851868
    ],
    "scaler_scale": [
      0.06258640398277901,
      0.11460840425140742,
      1.0431812925366373,
      0.04217461349057451,
      0.5051496532036214,
      1.2932226657867432
    ],
    "metrics": {
      "accuracy": 0.5105973025048169,
      "precision": 0.6274509803921569,
      "recall": 0.32764505119453924,
      "f1_score": 0.4304932735426009,
      "confusion_matrix": [
        [
          169,
          57
        ],
        [
          197,
          96
        ]
      ]
    },
    "features": [
      "return_1",
      "return_3",
      "ma_distance_7",
      "volatility_7",
      "volume_change",
      "momentum"
    ]
  },
  "NEM": {
    "weights": [
      -0.14731921153635322,
      -0.027816351548223973,
      0.005550022882606638,
      0.020952643809736996,
      0.04594258064761894,
      -0.006467189014404592
    ],
    "bias": -0.029421308870058074,
    "scaler_center": [
      -0.0006315429065397171,
      -0.0004957436115307634,
      -4.164781005642858e-06,
      0.053198490445100166,
      -0.02572737020723459,
      -6.134541763350929e-07
    ],
    "scaler_scale": [
      0.06352236772034417,
      0.11380733455755884,
      0.0019332244536673932,
      0.047113710733685754,
      0.6824530107461245,
      0.0026829008830573965
    ],
    "metrics": {
      "accuracy": 0.5295404814004376,
      "precision": 0.5868263473053892,
      "recall": 0.4016393442622951,
      "f1_score": 0.4768856447688564,
      "confusion_matrix": [
        [
          144,
          69
        ],
        [
          146,
          98
        ]
      ]
    },
    "features": [
      "return_1",
      "return_3",
      "ma_distance_7",
      "volatility_7",
      "volume_change",
      "momentum"
    ]
  },
  "Polkadot": {
    "weights": [
      -0.14467802108031397,
      -0.2170753351208838,
      -0.12083308087669055,
      0.10637380997991705,
      0.21960542248529594,
      0.21060309423858756
    ],
    "bias": -0.11335554634489231,
    "scaler_center": [
      -0.0014264528381801589,
      0.017001868787276497,
      0.0763249100000003,
      0.05513035623809269,
      -0.013046176677128374,
      0.0870615800000003
    ],
    "scaler_scale": [
      0.06240511734884649,
      0.12056007227225712,
      1.2861827108464325,
      0.02993682499631902,
      0.41463643873895856,
      1.4526517449999994
    ],
    "metrics": {
      "accuracy": 0.47619047619047616,
      "precision": 0.4666666666666667,
      "recall": 0.45161290322580644,
      "f1_score": 0.45901639344262296,
      "confusion_matrix": [
        [
          16,
          16
        ],
        [
          17,
          14
        ]
      ]
    },
    "features": [
      "return_1",
      "return_3",
      "ma_distance_7",
      "volatility_7",
      "volume_change",
      "momentum"
    ]
  },
  "Solana": {
    "weights": [
      -0.16824267327847225,
      -0.030099276189717174,
      0.025091759871830342,
      -0.09544486465121645,
      0.07857834566424392,
      0.0497561238185492
    ],
    "bias": 0.11246116672582164,
    "scaler_center": [
      0.005372572423651967,
      0.022902983123122667,
      0.02164715690578567,
      0.07294720346957267,
      -0.01660045497160556,
      0.03041965546249986
    ],
    "scaler_scale": [
      0.10466804635562263,
      0.19002498202477897,
      0.3032280115298215,
      0.04301099537253508,
      0.47240387678122475,
      0.38471677987999986
    ],
    "metrics": {
      "accuracy": 0.4606741573033708,
      "precision": 0.46551724137931033,
      "recall": 0.6136363636363636,
      "f1_score": 0.5294117647058824,
      "confusion_matrix": [
        [
          14,
          31
        ],
        [
          17,
          27
        ]
      ]
    },
    "features": [
      "return_1",
      "return_3",
      "ma_distance_7",
      "volatility_7",
      "volume_change",
      "momentum"
    ]
  },
  "Stellar": {
    "weights": [
      -0.0786202654050553,
      -0.04986922919874745,
      -0.004194568705880667,
      0.060295787370414584,
      0.05091615316456822,
      0.007043717355329255
    ],
    "bias": -0.17968433577969617,
    "scaler_center": [
      -0.0032229124540975596,
      -0.007745480520816084,
      -3.4085649531364346e-05,
      0.04537430546378046,
      -0.021201323979963493,
      -2.6534951757650055e-05
    ],
    "scaler_scale": [
      0.05614620617212138,
      0.09489000444594942,
      0.0009357304412073289,
      0.041727416209012394,
      0.5923682577898597,
      0.0010713626633845766
    ],
    "metrics": {
      "accuracy": 0.5,
      "precision": 0.6590909090909091,
      "recall": 0.10902255639097744,
      "f1_score": 0.1870967741935484,
      "confusion_matrix": [
        [
          223,
          15
        ],
        [
          237,
          29
        ]
      ]
    },
    "features": [
      "return_1",
      "return_3",
      "ma_distance_7",
      "volatility_7",
      "volume_change",
      "momentum"
    ]
  },
  "Tether": {
    "weights": [
      -0.06025037945934217,
      0.675323884519291,
      -0.09403761271898683,
      0.11348832505819978,
      -0.11345687744165624,
      -0.6428805691041153
    ],
    "bias": -0.7027555434724582,
    "scaler_center": [
      0.0,
      0.0,
      0.0,
      0.0021178869723039707,
      -0.013424999264189774,
      0.0
    ],
    "scaler_scale": [
      0.0014079832565381811,
      0.0016575388332821794,
      0.0011156591111591008,
      0.0045790697105799645,
      0.5101002297913967,
      0.0016580190208270451
    ],
    "metrics": {
      "accuracy": 0.5226781857451404,
      "precision": 1.0,
      "recall": 0.02643171806167401,
      "f1_score": 0.05150214592274678,
      "confusion_matrix": [
        [
          236,
          0
        ],
        [
          221,
          6
        ]
      ]
    },
    "features": [
      "return_1",
      "return_3",
      "ma_distance_7",
      "volatility_7",
      "volume_change",
      "momentum"
    ]
  },
  "Tron": {
    "weights": [
      -0.09417336635522738,
      0.0938320769546172,
      -0.0415554271837966,
      0.014227833620223704,
      -0.028153932156596943,
      0.04437786712425392
    ],
    "bias": 0.00014841589489941685,
    "scaler_center": [
      4.12151354658441e-05,
      -0.0027450125054547803,
      -7.589146737308448e-05,
      0.05003432871952271,
      -0.007137112401380152,
      -5.372396598839809e-05
    ],
    "scaler_scale": [
      0.05874636223888341,
      0.10576156226981337,
      0.0016484197032704253,
      0.040634319523618276,
      0.22953428999588396,
      0.00211672657195
    ],
    "metrics": {
      "accuracy": 0.51985559566787,
      "precision": 0.5323741007194245,
      "recall": 0.5211267605633803,
      "f1_score": 0.5266903914590747,
      "confusion_matrix": [
        [
          70,
          65
        ],
        [
          68,
          74
        ]
      ]
    },
    "features": [
      "return_1",
      "return_3",
      "ma_distance_7",
      "volatility_7",
      "volume_change",
      "momentum"
    ]
  },
  "USDCoin": {
    "weights": [
      -0.1648614276247259,
      -0.05080821186780437,
      -0.5279177008178708,
      -0.2115388097038345,
      -0.014365535013915793,
      0.12013462463389686
    ],
    "bias": 0.06539326359728512,
    "scaler_center": [
      3.060641338292758e-05,
      -3.84170333144751e-05,
      -4.443071428572587e-05,
      0.003421042694126071,
      0.0034461792227796773,
      -3.8427495000048495e-05
    ],
    "scaler_scale": [
      0.003942476011315144,
      0.004200305717964176,
      0.003024402521000058,
      0.003033108520541809,
      0.28913007323934764,
      0.004224871011499959
    ],
    "metrics": {
      "accuracy": 0.5175879396984925,
      "precision": 0.5052083333333334,
      "recall": 0.9897959183673469,
      "f1_score": 0.6689655172413793,
      "confusion_matrix": [
        [
          6,
          95
        ],
        [
          1,
          97
        ]
      ]
    },
    "features": [
      "return_1",
      "return_3",
      "ma_distance_7",
      "volatility_7",
      "volume_change",
      "momentum"
    ]
  },
  "Uniswap": {
    "weights": [
      -0.46065127996001864,
      0.2228805967583967,
      -0.16907020908676632,
      0.12483046805629489,
      0.05354686315413514,
      -0.008792021163675166
    ],
    "bias": 0.05581264717539584,
    "scaler_center": [
      -0.00045678059008585903,
      0.02065451162277987,
      0.10290218285714325,
      0.07077699744362366,
      -0.016838152411576712,
      0.1275580599999997
    ],
    "scaler_scale": [
      0.09267979105984797,
      0.17075675925846145,
      1.1776592971428541,
      0.0437194421704197,
      0.4933055244850665,
      1.4685295450000035
    ],
    "metrics": {
      "accuracy": 0.5789473684210527,
      "precision": 0.59375,
      "recall": 0.6333333333333333,
      "f1_score": 0.6129032258064516,
      "confusion_matrix": [
        [
          14,
          13
        ],
        [
          11,
          19
        ]
      ]
    },
    "features": [
      "return_1",
      "return_3",
      "ma_distance_7",
      "volatility_7",
      "volume_change",
      "momentum"
    ]
  },
  "WrappedBitcoin": {
    "weights": [
      -0.09492936779439354,
      -0.07427357163861016,
      -0.09732060438219732,
      0.03442576737561148,
      0.030357495179423856,
      0.17225271024391708
    ],
    "bias": 0.22628208445043216,
    "scaler_center": [
      0.0022454049700157963,
      0.0060150125553102285,
      10.0,
      0.027573825239727588,
      0.03968615800965947,
      10.0
    ],
    "scaler_scale": [
      0.029607179219657775,
      0.06071746920825222,
      20.0,
      0.02276907466745849,
      1.0340898929131663,
      20.0
    ],
    "metrics": {
      "accuracy": 0.5536723163841808,
      "precision": 0.5359477124183006,
      "recall": 0.9111111111111111,
      "f1_score": 0.6748971193415638,
      "confusion_matrix": [
        [
          16,
          71
        ],
        [
          8,
          82
        ]
      ]
    },
    "features": [
      "return_1",
      "return_3",
      "ma_distance_7",
      "volatility_7",
      "volume_change",
      "momentum"
    ]
  },
  "XRP": {
    "weights": [
      -0.04632669120248166,
      -0.009984883247879661,
      0.003062438919423117,
      0.05610340496423506,
      0.0327639118734179,
      -0.001601599712168489
    ],
    "bias": -0.21860057773762828,
    "scaler_center": [
      -0.0031487685870917326,
      -0.0067135491613936615,
      -7.544381410950042e-05,
      0.03621552292899778,
      -0.031127347878766087,
      -7.552490569649956e-05
    ],
    "scaler_scale": [
      0.039354912566761074,
      0.07839853846435693,
      0.0019140729647395879,
      0.03551461672530147,
      0.601509520631119,
      0.0024732296587899744
    ],
    "metrics": {
      "accuracy": 0.4763636363636364,
      "precision": 0.5277777777777778,
      "recall": 0.06551724137931035,
      "f1_score": 0.1165644171779141,
      "confusion_matrix": [
        [
          243,
          17
        ],
        [
          271,
          19
        ]
      ]
    },
    "features": [
      "return_1",
      "return_3",
      "ma_distance_7",
      "volatility_7",
      "volume_change",
      "momentum"
    ]
  }
}