{
  "Aave": {
    "weights": [
      -0.04356315817157674,
      0.04094519118836504,
      -0.1983214910295218,
      0.5037939600741129,
      0.13411547881076924,
      -0.4700438775014045
    ],
    "bias": -0.028773131539864865,
    "scaler_center": [
      0.012978577859769969,
      0.019418373369611164,
      0.024358333654679265,
      0.06291230980883737,
      -0.015301364247627736,
      3.2204678864285654
    ],
    "scaler_scale": [
      0.10465068984156367,
      0.16225525894854287,
      0.15213197914085547,
      0.03508968592068568,
      0.41870467191103133,
      13.971336078571426
    ],
    "metrics": {
      "accuracy": 0.4716981132075472,
      "precision": 0.4888888888888889,
      "recall": 0.8148148148148148,
      "f1_score": 0.6111111111111112,
      "confusion_matrix": [
        [
          3,
          23
        ],
        [
          5,
          22
        ]
      ]
    },
    "features": [
      "return_1",
      "return_3",
      "ma_distance_7",
      "volatility_7",
      "volume_change",
      "ma_crossover"
    ]
  },
  "BinanceCoin": {
    "weights": [
      -0.003985122790069653,
      -0.1265268470773492,
      0.10479329307990834,
      0.1223785731032851,
      -0.07297584322590997,
      -0.07482077056521969
    ],
    "bias": 0.048303721273832194,
    "scaler_center": [
      0.0007386270178186827,
      0.003636453022871633,
      0.0038648835093342544,
      0.04345073814162979,
      -0.020084860310569552,
      0.06743114315714394
    ],
    "scaler_scale": [
      0.05644969546342726,
      0.10467314525046428,
      0.08258807382748742,
      0.035801637778827125,
      0.28750334413895945,
      0.7661440312117866
    ],
    "metrics": {
      "accuracy": 0.48951048951048953,
      "precision": 0.5447154471544715,
      "recall": 0.4267515923566879,
      "f1_score": 0.4785714285714286,
      "confusion_matrix": [
        [
          73,
          56
        ],
        [
          90,
          67
        ]
      ]
    },
    "features": [
      "return_1",
      "return_3",
      "ma_distance_7",
      "volatility_7",
      "volume_change",
      "ma_crossover"
    ]
  },
  "Bitcoin": {
    "weights": [
      -0.04376399016057338,
      0.04960711486923542,
      -0.08842568697411302,
      -0.05223441875534246,
      0.008296446596659813,
      0.30703060060645043
    ],
    "bias": 0.16307829262674386,
    "scaler_center": [
      0.0013973178470869652,
      0.003932872988292813,
      0.0017641237686464848,
      0.026739333328934,
      -0.01388199824447578,
      1.3909955705914854
    ],
    "scaler_scale": [
      0.029156439989248606,
      0.06018496463331907,
      0.048055508252352955,
      0.026383107950292715,
      0.3584772841207315,
      20.0
    ],
    "metrics": {
      "accuracy": 0.5290909090909091,
      "precision": 0.5450346420323325,
      "recall": 0.7919463087248322,
      "f1_score": 0.6456908344733242,
      "confusion_matrix": [
        [
          55,
          197
        ],
        [
          62,
          236
        ]
      ]
    },
    "features": [
      "return_1",
      "return_3",
      "ma_distance_7",
      "volatility_7",
      "volume_change",
      "ma_crossover"
    ]
  },
  "Cardano": {
    "weights": [
      -0.25548027365449655,
      0.09396175763785869,
      0.08175379315665814,
      0.027236783796610216,
      0.02081236741805151,
      -0.017531443635035473
    ],
    "bias": -0.018569011655576676,
    "scaler_center": [
      -8.718700493415277e-05,
      -0.002232223848281145,
      -0.004765045905144373,
      0.05015756812369442,
      -0.02843535430971028,
      -0.00010098418629285802
    ],
    "scaler_scale": [
      0.06172891814676229,
      0.10632180419024881,
      0.08701727172006696,
      0.034431402134627184,
      0.4507994552257655,
      0.0053371953593818605
    ],
    "metrics": {
      "accuracy": 0.48717948717948717,
      "precision": 0.532258064516129,
      "recall": 0.44594594594594594,
      "f1_score": 0.4852941176470588,
      "confusion_matrix": [
        [
          67,
          58
        ],
        [
          82,
          66
        ]
      ]
    },
    "features": [
      "return_1",
      "return_3",
      "ma_distance_7",
      "volatility_7",
      "volume_change",
      "ma_crossover"
    ]
  },
  "ChainLink": {
    "weights": [
      -0.14055193617605075,
      0.03357287397838623,
      0.044934771165462635,
      -0.049689322127304744,
      0.03322677787296513,
      -0.02589863202853265
    ],
    "bias": -0.0171735428217131,
    "scaler_center": [
      -0.0010606568936155636,
      0.0022477402999809826,
      0.0015284194739603883,
      0.0581032243533851,
      -0.02365080150017529,
      0.005685286862509603
    ],
    "scaler_scale": [
      0.07470684741623257,
      0.14254206395402536,
      0.11397155530136778,
      0.04585500258587864,
      0.41438785223927443,
      0.07876778678499996
    ],
    "metrics": {
      "accuracy": 0.5745454545454546,
      "precision": 0.6363636363636364,
      "recall": 0.47619047619047616,
      "f1_score": 0.5447470817120622,
      "confusion_matrix": [
        [
          88,
          40
        ],
        [
          77,
          70
        ]
      ]
    },
    "features": [
      "return_1",
      "return_3",
      "ma_distance_7",
      "volatility_7",
      "volume_change",
      "ma_crossover"
    ]
  },
  "Cosmos": {
    "weights": [
      -0.1876824060788243,
      -0.20642897032099908,
      0.2075017091393767,
      0.054799568042885376,
      -0.05373081333295634,
      -0.22248434372093884
    ],
    "bias": 0.037063417049369614,
    "scaler_center": [
      0.0005665400682948185,
      0.0032915422278003703,
      0.0014703395730667468,
      0.047894412438137995,
      0.0032971584638026297,
      0.00976652242642917
    ],
    "scaler_scale": [
      0.06567544440278339,
      0.11279488447719066,
      0.08502463733238659,
      0.03033489856039162,
      0.28166533989023523,
      0.30929287945000006
    ],
    "metrics": {
      "accuracy": 0.5688622754491018,
      "precision": 0.569620253164557,
      "recall": 0.5421686746987951,
      "f1_score": 0.5555555555555556,
      "confusion_matrix": [
        [
          50,
          34
        ],
        [
          38,
          45
        ]
      ]
    },
    "features": [
      "return_1",
      "return_3",
      "ma_distance_7",
      "volatility_7",
      "volume_change",
      "ma_crossover"
    ]
  },
  "CryptocomCoin": {
    "weights": [
      -0.056344161014060604,
      0.04095602777654628,
      0.16646594759303457,
      -0.0687709264158416,
      -0.0746206041473926,
      0.006216391851728777
    ],
    "bias": 0.05924822106005978,
    "scaler_center": [
      0.0001743855105031944,
      0.001172938855864336,
      -0.0008449979725637876,
      0.03377085784426018,
      -0.01059992522007347,
      -5.3073116671423226e-05
    ],
    "scaler_scale": [
      0.04083281241794057,
      0.08779219877065281,
      0.071677967766236,
      0.02645320100792214,
      0.29989840985307736,
      0.003711438732685715
    ],
    "metrics": {
      "accuracy": 0.518918918918919,
      "precision": 0.573170731707317,
      "recall": 0.46534653465346537,
      "f1_score": 0.5136612021857924,
      "confusion_matrix": [
        [
          49,
          35
        ],
        [
          54,
          47
        ]
      ]
    },
    "features": [
      "return_1",
      "return_3",
      "ma_distance_7",
      "volatility_7",
      "volume_change",
      "ma_crossover"
    ]
  },
  "Dogecoin": {
    "weights": [
      -0.0754726249494213,
      0.02553376796356393,
      0.02038213005752708,
      0.051643545300120296,
      0.030967342460241007,
      0.0044467096677804656
    ],
    "bias": -0.17495023680806487,
    "scaler_center": [
      -0.002459955178839013,
      -0.007511733048382263,
      -0.0074070965314675715,
      0.03809946251249365,
      -0.017846050835448435,
      -1.7204287620000563e-06
    ],
    "scaler_scale": [
      0.04250215654850764,
      0.07746085109594258,
      0.05811205364198261,
      0.0424296921357722,
      0.49774656258518557,
      3.634463127658597e-05
    ],
    "metrics": {
      "accuracy": 0.49636363636363634,
      "precision": 0.49056603773584906,
      "recall": 0.1890909090909091,
      "f1_score": 0.27296587926509186,
      "confusion_matrix": [
        [
          221,
          54
        ],
        [
          223,
          52
        ]
      ]
    },
    "features": [
      "return_1",
      "return_3",
      "ma_distance_7",
      "volatility_7",
      "volume_change",
      "ma_crossover"
    ]
  },
  "EOS": {
    "weights": [
      -0.1937129179679617,
      0.11483295760482558,
      -0.10552100983994168,
      0.06228830072716807,
      0.05735085528660845,
      0.035407711981903144
    ],
    "bias": -0.041895392645723985,
    "scaler_center": [
      -0.0004750362831580368,
      -0.0021598733449192387,
      -0.0016627149988582292,
      0.05056520525504312,
      -0.018713302869793058,
      -0.008116388330714042
    ],
    "scaler_scale": [
      0.05273002067736393,
      0.10106705047580139,
      0.08104536613961577,
      0.04388433328707453,
      0.31252617033659813,
      0.27922038124232523
    ],
    "metrics": {
      "accuracy": 0.5189003436426117,
      "precision": 0.5283018867924528,
      "recall": 0.3835616438356164,
      "f1_score": 0.4444444444444444,
      "confusion_matrix": [
        [
          95,
          50
        ],
        [
          90,
          56
        ]
      ]
    },
    "features": [
      "return_1",
      "return_3",
      "ma_distance_7",
      "volatility_7",
      "volume_change",
      "ma_crossover"
    ]
  },
  "Ethereum": {
    "weights": [
      -0.21352718612412463,
      -0.05144945535996654,
      0.1428819187747238,
      0.04482631897779372,
      0.06436154420351152,
      0.07547487399770894
    ],
    "bias": -0.04032205850710817,
    "scaler_center": [
      -0.0004990419831896187,
      0.0032171676398931037,
      0.001725925328313812,
      0.04483039632602641,
      -0.011065382043244698,
      0.03715705871582031
    ],
    "scaler_scale": [
      0.05128495274819933,
      0.09938364264615607,
      0.0796761015281123,
      0.037478879597964976,
      0.3567038857673941,
      6.17105098264858
    ],
    "metrics": {
      "accuracy": 0.4930232558139535,
      "precision": 0.5671641791044776,
      "recall": 0.46530612244897956,
      "f1_score": 0.5112107623318386,
      "confusion_matrix": [
        [
          98,
          87
        ],
        [
          131,
          114
        ]
      ]
    },
    "features": [
      "return_1",
      "return_3",
      "ma_distance_7",
      "volatility_7",
      "volume_change",
      "ma_crossover"
    ]
  },
  "Iota": {
    "weights": [
      -0.25701716638038397,
      0.13292433202190285,
      -0.10877259860759504,
      0.1359785302794609,
      0.044503378594875964,
      -0.0009548745357609675
    ],
    "bias": -0.10669797310358853,
    "scaler_center": [
      -0.0015169601707347158,
      -0.005299465333334752,
      -0.007347394187721456,
      0.04905043627763947,
      -0.029458170820275742,
      -0.00220445194060713
    ],
    "scaler_scale": [
      0.06343512555801634,
      0.10654354569001107,
      0.08235814016065222,
      0.03887121146496364,
      0.4543066007859392,
      0.028510224301732112
    ],
    "metrics": {
      "accuracy": 0.5830508474576271,
      "precision": 0.6764705882352942,
      "recall": 0.4339622641509434,
      "f1_score": 0.5287356321839081,
      "confusion_matrix": [
        [
          103,
          33
        ],
        [
          90,
          69
        ]
      ]
    },
    "features": [
      "return_1",
      "return_3",
      "ma_distance_7",
      "volatility_7",
      "volume_change",
      "ma_crossover"
    ]
  },
  "Litecoin": {
    "weights": [
      -0.07779271296827234,
      -0.07672871292384138,
      0.03770178049397005,
      0.061048756967793875,
      -0.02007770866299847,
      -9.895086037839469e-05
    ],
    "bias": -0.07564084855967641,
    "scaler_center": [
      -0.0011510835105346118,
      -0.0026453329017385174,
      -0.002692488295136726,
      0.03718715368049411,
      -0.02600907327177515,
      -0.00848002093178879
    ],
    "scaler_scale": [
      0.038242338664347564,
      0.071089157166845,
      0.05477944709512511,
      0.03776834791323107,
      0.411466589383306,
      0.7590174869605399
    ],
    "metrics": {
      "accuracy": 0.5072727272727273,
      "precision": 0.5859375,
      "recall": 0.25597269624573377,
      "f1_score": 0.35629453681710216,
      "confusion_matrix": [
        [
          204,
          53
        ],
        [
          218,
          75
        ]
      ]
    },
    "features": [
      "return_1",
      "return_3",
      "ma_distance_7",
      "volatility_7",
      "volume_change",
      "ma_crossover"
    ]
  },
  "Monero": {
    "weights": [
      -0.11924386417953571,
      -0.08309096428754523,
      0.023011075243460643,
      0.0022301612586941057,
      0.07745845823494904,
      0.013005381444082633
    ],
    "bias": -0.037586730550629464,
    "scaler_center": [
      -0.001260243156873453,
      -0.0026563582427514554,
      -0.003135221078515272,
      0.051066697327133634,
      -0.01672828517960656,
      -0.0027046416487013225
    ],
    "scaler_scale": [
      0.062373985987911384,
      0.11472122708252375,
      0.08664225053402161,
      0.041972841158626054,
      0.505789932445693,
      0.8379170311771522
    ],
    "metrics": {
      "accuracy": 0.5328185328185329,
      "precision": 0.631578947368421,
      "recall": 0.410958904109589,
      "f1_score": 0.4979253112033195,
      "confusion_matrix": [
        [
          156,
          70
        ],
        [
          172,
          120
        ]
      ]
    },
    "features": [
      "return_1",
      "return_3",
      "ma_distance_7",
      "volatility_7",
      "volume_change",
      "ma_crossover"
    ]
  },
  "NEM": {
    "weights": [
      -0.15864164420450122,
      -0.0922519460538148,
      0.06260603829884907,
      0.02974636186638354,
      0.047500190038134334,
      0.00022423067286035913
    ],
    "bias": -0.028899702664408968,
    "scaler_center": [
      -0.0005200796106398231,
      -0.0002163366826090085,
      -0.0034618410106402745,
      0.053069209800920544,
      -0.025893822041925252,
      -2.297789251304342e-06
    ],
    "scaler_scale": [
      0.0632894953891574,
      0.11366994478246037,
      0.08684517017871143,
      0.04686007233236536,
      0.6824530107461245,
      0.0020073026434303714
    ],
    "metrics": {
      "accuracy": 0.5318681318681319,
      "precision": 0.5842696629213483,
      "recall": 0.4279835390946502,
      "f1_score": 0.49406175771971494,
      "confusion_matrix": [
        [
          138,
          74
        ],
        [
          139,
          104
        ]
      ]
    },
    "features": [
      "return_1",
      "return_3",
      "ma_distance_7",
      "volatility_7",
      "volume_change",
      "ma_crossover"
    ]
  },
  "Polkadot": {
    "weights": [
      -0.059636645353537236,
      0.18055868011935605,
      -0.39127028930346197,
      0.15558620753324537,
      0.20927462081855794,
      -0.023904839391404104
    ],
    "bias": -0.08194139360863775,
    "scaler_center": [
      -0.0013676873851310445,
      0.013485233263743401,
      0.014541490555251335,
      0.05492946616989822,
      -0.006468624891480923,
      0.09048162714285723
    ],
    "scaler_scale": [
      0.06296715769315409,
      0.12190908284271351,
      0.09766273310824605,
      0.02950659580946729,
      0.42272684687999407,
      0.9142299742857105
    ],
    "metrics": {
      "accuracy": 0.5806451612903226,
      "precision": 0.5476190476190477,
      "recall": 0.7666666666666667,
      "f1_score": 0.6388888888888888,
      "confusion_matrix": [
        [
          13,
          19
        ],
        [
          7,
          23
        ]
      ]
    },
    "features": [
      "return_1",
      "return_3",
      "ma_distance_7",
      "volatility_7",
      "volume_change",
      "ma_crossover"
    ]
  },
  "Solana": {
    "weights": [
      -0.117453292078369,
      0.20573185261318613,
      -0.17321244810275305,
      -0.10046613974312661,
      0.09340292437358959,
      0.043395504213716296
    ],
    "bias": 0.10734132611246366,
    "scaler_center": [
      0.005513261910335965,
      0.02309345334267765,
      0.016286339564444124,
      0.0726979359874927,
      -0.016842453659617007,
      0.02533828317985709
    ],
    "scaler_scale": [
      0.10401138623254624,
      0.185523836317614,
      0.1438805064147943,
      0.0425630256592371,
      0.4729595704376655,
      0.29483945013946417
    ],
    "metrics": {
      "accuracy": 0.4431818181818182,
      "precision": 0.4603174603174603,
      "recall": 0.6590909090909091,
      "f1_score": 0.5420560747663551,
      "confusion_matrix": [
        [
          10,
          34
        ],
        [
          15,
          29
        ]
      ]
    },
    "features": [
      "return_1",
      "return_3",
      "ma_distance_7",
      "volatility_7",
      "volume_change",
      "ma_crossover"
    ]
  },
  "Stellar": {
    "weights": [
      -0.07111001536333557,
      -0.01988861126828116,
      -0.016335105451018163,
      0.06865956924844299,
      0.04606150475323552,
      -0.0044707190975603545
    ],
    "bias": -0.18100758169958325,
    "scaler_center": [
      -0.003211499162840581,
      -0.0072532667912657,
      -0.008370665214574632,
      0.045279529499802004,
      -0.02075427715158662,
      -3.0730701317742675e-05
    ],
    "scaler_scale": [
      0.0560389342904668,
      0.09426626553070405,
      0.07278305985917766,
      0.04128880636283022,
      0.5910002479410437,
      0.0010959284845739495
    ],
    "metrics": {
      "accuracy": 0.49502982107355864,
      "precision": 0.6037735849056604,
      "recall": 0.12075471698113208,
      "f1_score": 0.20125786163522014,
      "confusion_matrix": [
        [
          217,
          21
        ],
        [
          233,
          32
        ]
      ]
    },
    "features": [
      "return_1",
      "return_3",
      "ma_distance_7",
      "volatility_7",
      "volume_change",
      "ma_crossover"
    ]
  },
  "Tether": {
    "weights": [
      -0.075659816087703,
      0.0010631262712571324,
      -0.04766177142107164,
      0.40864903221683624,
      -0.09665452395254034,
      -0.014545668069148665
    ],
    "bias": -0.7669072969167983,
    "scaler_center": [
      0.0,
      0.0,
      0.0,
      0.0021222796248854293,
      -0.013424999264189774,
      0.0
    ],
    "scaler_scale": [
      0.0014631275658806564,
      0.001711806537160021,
      0.0011252185294026496,
      0.0045790697105799645,
      0.5084882464827455,
      0.000606614136152761
    ],
    "metrics": {
      "accuracy": 0.527114967462039,
      "precision": 0.7857142857142857,
      "recall": 0.048672566371681415,
      "f1_score": 0.09166666666666666,
      "confusion_matrix": [
        [
          232,
          3
        ],
        [
          215,
          11
        ]
      ]
    },
    "features": [
      "return_1",
      "return_3",
      "ma_distance_7",
      "volatility_7",
      "volume_change",
      "ma_crossover"
    ]
  },
  "Tron": {
    "weights": [
      -0.10168938647122942,
      0.18809642760213452,
      -0.11092275645086451,
      0.04053090579507607,
      -0.02380631011202214,
      -0.02888759395254044
    ],
    "bias": -0.008675735489431683,
    "scaler_center": [
      7.329999464023018e-05,
      -0.002528951692011172,
      -0.00413314644459885,
      0.049826297074904616,
      -0.007247357364831286,
      -3.2270002910592815e-05
    ],
    "scaler_scale": [
      0.05849406517787642,
      0.10473489738617464,
      0.08205409972239452,
      0.04063136092163317,
      0.22893565614446237,
      0.0014577340184138777
    ],
    "metrics": {
      "accuracy": 0.5108695652173914,
      "precision": 0.5309734513274337,
      "recall": 0.4225352112676056,
      "f1_score": 0.47058823529411764,
      "confusion_matrix": [
        [
          81,
          53
        ],
        [
          82,
          60
        ]
      ]
    },
    "features": [
      "return_1",
      "return_3",
      "ma_distance_7",
      "volatility_7",
      "volume_change",
      "ma_crossover"
    ]
  },
  "USDCoin": {
    "weights": [
      -0.1710577443645976,
      0.04308401058250028,
      -0.49745394221167216,
      -0.19122494279648836,
      -0.014691371321544114,
      -0.04100714141782601
    ],
    "bias": 0.06591394195738447,
    "scaler_center": [
      3.128410352526423e-05,
      -3.378466781345235e-05,
      -4.22946456324969e-05,
      0.003395027924105888,
      0.0035885151360508516,
      -3.659285714441296e-06
    ],
    "scaler_scale": [
      0.0038903236241242256,
      0.004177271255048964,
      0.002986026786146825,
      0.0029801557986494738,
      0.28689475099979544,
      0.0012252295053214457
    ],
    "metrics": {
      "accuracy": 0.5151515151515151,
      "precision": 0.5052631578947369,
      "recall": 0.9795918367346939,
      "f1_score": 0.6666666666666666,
      "confusion_matrix": [
        [
          6,
          94
        ],
        [
          2,
          96
        ]
      ]
    },
    "features": [
      "return_1",
      "return_3",
      "ma_distance_7",
      "volatility_7",
      "volume_change",
      "ma_crossover"
    ]
  },
  "Uniswap": {
    "weights": [
      -0.484374110769762,
      0.14208431493894763,
      -0.10593527745737628,
      0.24409564201140038,
      -0.009164002255505966,
      -0.15721765062833412
    ],
    "bias": 0.07808021514561142,
    "scaler_center": [
      0.0019993336023973463,
      0.02078915108746404,
      0.013153930483204438,
      0.0697403813875123,
      -0.013868192137959534,
      0.2180699328571425
    ],
    "scaler_scale": [
      0.0928061058700374,
      0.170133992211757,
      0.12687456164779057,
      0.040946370360116086,
      0.5032129881572874,
      1.0614254999999968
    ],
    "metrics": {
      "accuracy": 0.6071428571428571,
      "precision": 0.5952380952380952,
      "recall": 0.8333333333333334,
      "f1_score": 0.6944444444444444,
      "confusion_matrix": [
        [
          9,
          17
        ],
        [
          5,
          25
        ]
      ]
    },
    "features": [
      "return_1",
      "return_3",
      "ma_distance_7",
      "volatility_7",
      "volume_change",
      "ma_crossover"
    ]
  },
  "WrappedBitcoin": {
    "weights": [
      -0.08755827353236972,
      -0.018563626707558543,
      -0.04601403527602126,
      0.02760206122603955,
      0.025148951785530966,
      0.10550373853097593
    ],
    "bias": 0.22175275745526107,
    "scaler_center": [
      0.002206477882860658,
      0.0057268112406266836,
      0.008023936223101819,
      0.027552199188629778,
      0.04246434296761126,
      10.0
    ],
    "scaler_scale": [
      0.02966985930308083,
      0.05999992258061729,
      0.04989538302127541,
      0.023313196839907582,
      1.033930472251294,
      20.0
    ],
    "metrics": {
      "accuracy": 0.56,
      "precision": 0.5394736842105263,
      "recall": 0.9213483146067416,
      "f1_score": 0.6804979253112033,
      "confusion_matrix": [
        [
          16,
          70
        ],
        [
          7,
          82
        ]
      ]
    },
    "features": [
      "return_1",
      "return_3",
      "ma_distance_7",
      "volatility_7",
      "volume_change",
      "ma_crossover"
    ]
  },
  "XRP": {
    "weights": [
      -0.060006059200742076,
      -0.09806145223613273,
      0.12123460502774815,
      0.049729636873301515,
      0.0373995831323197,
      0.0010741010103521912
    ],
    "bias": -0.221802964943935,
    "scaler_center": [
      -0.0031351533814250043,
      -0.006684181319724591,
      -0.008070298264218479,
      0.036234376790889325,
      -0.030623974705979773,
      -8.399156285715526e-05
    ],
    "scaler_scale": [
      0.039406983328671485,
      0.07860577386537776,
      0.0577644997674013,
      0.03553892577326368,
      0.6016750312721932,
      0.0018377799008573777
    ],
    "metrics": {
      "accuracy": 0.48,
      "precision": 0.5526315789473685,
      "recall": 0.07241379310344828,
      "f1_score": 0.12804878048780488,
      "confusion_matrix": [
        [
          243,
          17
        ],
        [
          269,
          21
        ]
      ]
    },
    "features": [
      "return_1",
      "return_3",
      "ma_distance_7",
      "volatility_7",
      "volume_change",
      "ma_crossover"
    ]
  }
}